{"type": "mlp", "state_dim": 6, "W1": [[-1.1363747119903564, 0.5495816469192505, -0.3543146848678589, -0.014043587259948254, -0.13762177526950836, 0.23305059969425201], [0.12711387872695923, -0.19637274742126465, 0.21233057975769043, -0.19018298387527466, 0.18965856730937958, 1.745089054107666], [0.012866259552538395, -0.012341980822384357, 0.024491721764206886, 0.00046810408821329474, 0.04655284062027931, -17.31829833984375], [-0.11471033841371536, 0.1215195283293724, -0.3031531572341919, -0.2075970321893692, -0.1661732941865921, 0.07128487527370453], [-0.4787590801715851, -0.0024704933166503906, 0.40594038367271423, 0.0034162583760917187, 0.6976593136787415, 1.3467921018600464], [0.587286651134491, -0.14578840136528015, 0.5654516220092773, -0.02041030302643776, 0.4248988926410675, -3.5803699493408203], [0.9814332127571106, -0.9239997863769531, -8.513328552246094, 0.016601743176579475, -1.5980327129364014, 2.1568496227264404], [-0.3978523910045624, -0.3909606337547302, 0.07065228372812271, -0.33216530084609985, -0.04854939132928848, 0.1563984900712967], [0.18855133652687073, -0.18574723601341248, -0.4729582369327545, -0.6280757784843445, -0.028246568515896797, 3.2709431648254395], [0.01987757533788681, 0.1617593616247177, 0.34067267179489136, -0.011652776040136814, 0.4412862956523895, 1.8886544704437256], [-0.763602077960968, -0.005333355162292719, 1.0397075414657593, -0.01386953890323639, 0.726990282535553, -0.9199541211128235], [0.43683144450187683, 0.4544425904750824, -2.8418948650360107, -0.009766929782927036, -1.226879596710205, -0.33314722776412964], [-0.18052835762500763, 0.09339690208435059, -0.1093391627073288, -0.115509994328022, 0.037794895470142365, -2.539363145828247], [0.25431010127067566, 0.29558196663856506, -0.19179409742355347, 0.06754109263420105, -0.443133682012558, -4.914157867431641], [0.38863876461982727, -0.015415809117257595, 0.01461865659803152, 0.00842937920242548, 0.2333565652370453, 4.233381748199463], [0.1362207680940628, 0.1884775012731552, -0.6267379522323608, -0.42438751459121704, 0.3457123041152954, -0.46463364362716675], [0.09395940601825714, 0.37162095308303833, 0.2807868421077728, -0.028301559388637543, 0.1395685076713562, -0.07778121531009674], [0.23362325131893158, -0.09151320904493332, 0.23628006875514984, 0.04106777533888817, 0.2060215026140213, -2.102931022644043], [0.2724345624446869, -0.18633557856082916, 0.4638062119483948, -0.009849184192717075, 0.33700934052467346, -3.4316000938415527], [0.40313515067100525, -0.028460867702960968, -0.3698800802230835, -0.5684781074523926, 0.16296778619289398, -5.623388767242432], [-0.9932466149330139, 0.9764763116836548, -7.819439888000488, -0.010486133396625519, -1.51034414768219, 4.724551677703857], [0.036537155508995056, 0.01816519908607006, -2.149890184402466, 0.0068330480717122555, -0.2688567340373993, -1.6697598695755005], [0.22475284337997437, -0.31833070516586304, -0.11347305774688721, 0.018098535016179085, -0.23824907839298248, 2.250279426574707], [0.21090629696846008, 0.1625012457370758, 0.026140578091144562, -0.04219244420528412, -0.2182902842760086, 2.1716389656066895], [-0.12184564769268036, -0.018146850168704987, -0.034272607415914536, 0.005540493410080671, -0.22682048380374908, 0.12259604036808014], [0.09698813408613205, -0.3183286190032959, 0.3810226321220398, 0.0018591106636449695, 0.35517579317092896, 1.1141746044158936], [0.1862231194972992, 0.19643132388591766, 0.0055170487612485886, 0.03459674119949341, 0.3141392171382904, -1.2661452293395996], [0.050175685435533524, -0.04481691122055054, -0.6686893701553345, 0.46651268005371094, -0.3991258442401886, -0.7461618781089783], [0.43638819456100464, -0.1378903090953827, 0.49435949325561523, 0.006275814492255449, 0.11620999127626419, 0.5031436681747437], [-0.16742081940174103, -0.17244824767112732, 0.04655888304114342, 0.2042970210313797, 0.17956465482711792, 1.5246217250823975], [0.04806685075163841, 0.04854760691523552, -0.4450148642063141, 0.3414894640445709, -0.42201459407806396, -3.0124213695526123], [-0.08136333525180817, -0.1799447238445282, 0.6340168118476868, -0.3133839964866638, 0.4177570939064026, 1.5157865285873413], [-0.5709533095359802, 0.024047618731856346, 1.0742709636688232, -0.04342760145664215, -0.04058224707841873, -1.9079080820083618], [-0.21195539832115173, 0.023135168477892876, 0.043114036321640015, 0.09861426055431366, -0.12749043107032776, -0.005159139167517424], [-0.09252963960170746, 0.05180119723081589, 0.10870083421468735, 0.005597550421953201, 0.22191403806209564, -12.468273162841797], [0.28527402877807617, -0.3158431351184845, -0.0782027617096901, 0.20585033297538757, 0.28117018938064575, -2.487037181854248], [0.2450178563594818, -0.2520732283592224, 0.4416167140007019, 0.012203461490571499, 0.43164581060409546, -5.808620452880859], [0.10112761706113815, -0.2696773409843445, -0.17520791292190552, -0.07911157608032227, -0.033320385962724686, -4.074501037597656], [0.08142438530921936, 0.041644949465990067, -0.607914388179779, -0.23847217857837677, 0.06392571330070496, -4.253903865814209], [0.051244039088487625, -0.22841112315654755, -0.16320089995861053, 0.005484013352543116, -0.23689469695091248, 3.4940288066864014], [0.4098149538040161, 0.005590776447206736, -0.3544762134552002, -0.15219177305698395, 0.14328955113887787, -3.6746654510498047], [0.40942397713661194, 0.002341417595744133, 0.6703730225563049, -0.46512264013290405, 0.11665273457765579, -1.1070975065231323], [-0.0041005564853549, -0.001597327645868063, -0.004013922531157732, -0.0030462858267128468, 0.02455209009349346, -20.107601165771484], [-0.02658211998641491, -0.057348333299160004, -1.8786102533340454, 0.10982144623994827, 0.3240921199321747, 1.1548048257827759], [-0.6046336889266968, 0.5760551691055298, -6.5432281494140625, -0.012383035384118557, -1.366557002067566, 3.232288122177124], [-0.4084446430206299, 0.12096979469060898, -0.15182676911354065, 0.014285833574831486, 0.42875832319259644, -5.530846118927002], [0.288337379693985, -0.07202398777008057, -0.519018292427063, -0.11661000549793243, -0.5148394107818604, -2.031402111053467], [-0.2777639627456665, 0.0038182497955858707, -1.8699747323989868, 0.0025683478452265263, -0.23193921148777008, -0.7228242754936218], [0.47668716311454773, -0.427390992641449, -6.388639450073242, 0.014117376878857613, -1.297620415687561, 1.4803061485290527], [-0.05118603631854057, -0.05395050346851349, -0.7097935080528259, 0.002016152022406459, -0.2727067172527313, 3.8555524349212646], [-0.15977932512760162, -0.34446582198143005, 0.568634033203125, 0.0016349742654711008, 0.49808478355407715, 2.013956308364868], [0.24947448074817657, -0.28031808137893677, 0.7139866948127747, -0.03028419055044651, 0.0022282900754362345, -1.5193246603012085], [-0.1411270946264267, -0.13512863218784332, -0.5737937688827515, 0.015476075932383537, -0.3211764097213745, 4.031534671783447], [-0.01182895340025425, 0.23277874290943146, -0.5805465579032898, 0.06111067160964012, -0.23249107599258423, 7.875766277313232], [-0.7597991824150085, 0.30166593194007874, -0.16107352077960968, -0.005004603881388903, 0.2438035011291504, 4.139468193054199], [0.4639461040496826, -0.1962113380432129, -0.09617077559232712, -0.0014799361815676093, -0.5650401711463928, 4.886913299560547], [-0.9268178343772888, -0.018628215417265892, 0.8385040163993835, 0.008867655880749226, 0.7685253024101257, 1.8262819051742554], [-1.5731929540634155, -1.714150309562683, -6.313802242279053, 0.01446680910885334, -1.0948848724365234, 6.334524631500244], [-0.052142221480607986, -0.39332008361816406, 0.47801172733306885, -0.34201210737228394, 0.19076339900493622, -6.418436527252197], [0.04060725122690201, 0.041504181921482086, -0.008753682486712933, -0.23897089064121246, 0.2593784034252167, -0.02537754736840725], [0.14669902622699738, -0.0063955215737223625, 0.29858165979385376, -0.2990117073059082, 0.649149477481842, 1.878029704093933], [-0.002308500465005636, 0.006088792346417904, -2.368137836456299, 0.0081661781296134, -0.23593488335609436, 3.669846296310425], [-0.14237947762012482, 0.31855151057243347, -0.3016647398471832, 0.16160434484481812, 0.07248375564813614, -0.2568502128124237], [-0.7918922901153564, 0.5239416360855103, -0.47622278332710266, -0.003771729301661253, -0.2767452597618103, 2.081699848175049]], "b1": [0.024610644206404686, 0.0928056538105011, 0.02555176056921482, -0.3620477616786957, 0.2809634506702423, -0.7682259678840637, 0.22039714455604553, -0.0148176159709692, -0.018587643280625343, -0.48142749071121216, -0.0728428065776825, -0.8793657422065735, 0.21809154748916626, -0.11506099998950958, -0.4911171793937683, 0.09763911366462708, -0.8703758120536804, -0.09090369194746017, 0.0428125336766243, -0.3874279260635376, 0.1919967234134674, 0.7658216953277588, 0.2058267593383789, 0.3065520226955414, -0.33856236934661865, -0.45999279618263245, -0.302822470664978, 0.060941535979509354, -0.39190471172332764, -0.01895306073129177, 0.36844968795776367, 0.14275015890598297, 0.0964604914188385, -0.3972671329975128, -0.11091858893632889, -0.19190219044685364, 0.13062044978141785, 0.5566354393959045, 0.5836005806922913, 0.04200593754649162, 0.28778988122940063, -0.6956244111061096, 0.08374352008104324, 0.6559990048408508, 0.7031205296516418, 0.2726803123950958, 0.307699054479599, 0.46694356203079224, 0.7311989068984985, 0.43030908703804016, -0.048065103590488434, 0.17792066931724548, 0.7043510675430298, -0.014947530813515186, -0.7356235384941101, 0.11787351965904236, 0.24225515127182007, 1.0087361335754395, -0.18283811211585999, -0.3910558521747589, -0.5930666923522949, 0.972748339176178, -0.31603556871414185, 0.1679052710533142], "W2": [[0.026926863938570023, 0.021014656871557236, 1.0351063013076782, -0.03769482672214508, 0.332685261964798, 0.3199178874492645, 5.37611198425293, 0.0884728729724884, 0.2047688066959381, -0.07399444282054901, 0.9673793911933899, 0.0897141546010971, 0.19298766553401947, 0.020209025591611862, -0.3701622486114502, 0.0695955753326416, 0.23940949141979218, 0.06805805116891861, -0.1540532261133194, -0.3791075348854065, 0.023653939366340637, -1.2580716609954834, -0.08403094857931137, 0.13995832204818726, -0.040614500641822815, -0.04500887915492058, 0.0016215549549087882, 0.20541006326675415, -0.0353240929543972, -0.037903547286987305, 0.22849951684474945, -0.04945804551243782, -0.298602819442749, 0.07229885458946228, -0.05712214857339859, 0.06018202379345894, -0.08280684053897858, 0.10046841204166412, 0.18415962159633636, 0.07651810348033905, 0.21248528361320496, 0.6894323229789734, 0.8958004117012024, -0.548771858215332, -0.049108464270830154, 0.1579778641462326, 0.046615105122327805, 0.3266175389289856, -7.170875549316406, -0.3090013265609741, 0.20058995485305786, 0.10261944681406021, 0.2251712828874588, -0.23221126198768616, 0.15131737291812897, -0.00387947796843946, -0.6711164116859436, -13.276420593261719, 0.10987022519111633, -0.12399423122406006, -0.6169124245643616, 1.4222533702850342, 0.10387177765369415, -0.1026800125837326], [-0.5857236385345459, -0.017445018514990807, 0.37597140669822693, 0.11565522849559784, 0.2686747908592224, -0.48850831389427185, -0.08820828050374985, -0.000420942174969241, 0.23114043474197388, -0.0005702340276911855, 0.27115529775619507, -3.811692476272583, -0.06595953553915024, 0.11863739043474197, 0.2201516479253769, 0.04622509703040123, -0.03303840011358261, 0.0986858606338501, -0.11274050176143646, -0.11418111622333527, -0.006248104851692915, -0.6309736371040344, 0.19823388755321503, 0.2006562203168869, 0.013760760426521301, 0.328414648771286, 0.1413431316614151, 0.2811817228794098, 0.39394891262054443, -0.02706865221261978, 0.029251789674162865, -0.10959319025278091, -0.054912835359573364, 0.049584418535232544, -0.012156026437878609, -0.15028619766235352, 0.06725697964429855, 0.09507334232330322, 0.2571695148944855, -0.1720452606678009, 0.13102512061595917, 0.0506027452647686, 1.073532223701477, -0.3084823489189148, -0.023744948208332062, 0.04952364042401314, 0.021421464160084724, 0.31005170941352844, 0.08670922368764877, -0.32419294118881226, 0.06266650557518005, 0.28864172101020813, 0.48404693603515625, -0.356029212474823, 0.05481426417827606, -0.18487082421779633, -0.1772163212299347, -11.900877952575684, -0.20814628899097443, -0.01187346875667572, -0.0428713820874691, 0.4987839162349701, -0.047530051320791245, 0.7686799764633179], [-0.020080305635929108, 0.018916478380560875, 0.38148021697998047, 0.007168173789978027, -0.1970272958278656, 0.02195875346660614, 0.06530360877513885, 0.06945548951625824, 0.1443038135766983, -0.36776256561279297, 0.839058518409729, -5.85771369934082, 0.07459200918674469, 0.2224980592727661, -0.31938984990119934, 0.14829671382904053, 0.21907855570316315, 0.018018050119280815, 0.21354912221431732, -0.16737844049930573, 6.452691078186035, -1.8013341426849365, -0.09977492690086365, 0.05632495507597923, 0.11838747560977936, 0.15724152326583862, 0.07238982617855072, 0.21450254321098328, 0.0016442836495116353, -0.10535929352045059, 0.1586180031299591, -0.10271056741476059, -0.37769433856010437, -0.08876897394657135, 0.507862389087677, -0.11818631738424301, 0.3452448844909668, -0.1350318342447281, 0.21008794009685516, -0.5930767059326172, 0.06478706747293472, 0.18981121480464935, 1.2399438619613647, -0.5991477966308594, -7.765921592712402, 0.3478180766105652, -0.11409466713666916, 0.30164021253585815, -0.07245989888906479, -0.014996089972555637, 0.1746024638414383, 0.08230461180210114, 0.4887514114379883, -0.4520564675331116, -1.493634581565857, 0.052879203110933304, -0.4471578598022461, 0.18402650952339172, -0.06544037908315659, -0.09647774696350098, -0.16922931373119354, 1.8409675359725952, 0.07977176457643509, 0.16031332314014435]], "b2": [0.3625263273715973, 0.36119893193244934, 0.3226866126060486]}